digraph Tree {
node [shape=box] ;
0 [label="Population_Driver_licence(%) <= 0.667\nmse = 11768.588\nsamples = 50\nvalue = 579.82"] ;
1 [label="Average_income <= 4395.0\nmse = 6367.076\nsamples = 46\nvalue = 559.478"] ;
0 -> 1 [labeldistance=2.5, labelangle=45, headlabel="True"] ;
2 [label="Petrol_tax <= 7.75\nmse = 2903.871\nsamples = 31\nvalue = 596.0"] ;
1 -> 2 ;
3 [label="Paved_Highways <= 6482.5\nmse = 2494.155\nsamples = 19\nvalue = 618.947"] ;
2 -> 3 ;
4 [label="Paved_Highways <= 4423.0\nmse = 1925.56\nsamples = 10\nvalue = 640.8"] ;
3 -> 4 ;
5 [label="Average_income <= 3700.5\nmse = 947.188\nsamples = 8\nvalue = 623.75"] ;
4 -> 5 ;
6 [label="Population_Driver_licence(%) <= 0.555\nmse = 1260.25\nsamples = 2\nvalue = 663.5"] ;
5 -> 6 ;
7 [label="mse = 0.0\nsamples = 1\nvalue = 628.0"] ;
6 -> 7 ;
8 [label="mse = 0.0\nsamples = 1\nvalue = 699.0"] ;
6 -> 8 ;
9 [label="Average_income <= 4298.0\nmse = 140.583\nsamples = 6\nvalue = 610.5"] ;
5 -> 9 ;
10 [label="Population_Driver_licence(%) <= 0.566\nmse = 57.76\nsamples = 5\nvalue = 606.2"] ;
9 -> 10 ;
11 [label="mse = 0.0\nsamples = 1\nvalue = 591.0"] ;
10 -> 11 ;
12 [label="mse = 0.0\nsamples = 4\nvalue = 610.0"] ;
10 -> 12 ;
13 [label="mse = 0.0\nsamples = 1\nvalue = 632.0"] ;
9 -> 13 ;
14 [label="Average_income <= 3807.5\nmse = 25.0\nsamples = 2\nvalue = 709.0"] ;
4 -> 14 ;
15 [label="mse = 0.0\nsamples = 1\nvalue = 714.0"] ;
14 -> 15 ;
16 [label="mse = 0.0\nsamples = 1\nvalue = 704.0"] ;
14 -> 16 ;
17 [label="Population_Driver_licence(%) <= 0.556\nmse = 2005.778\nsamples = 9\nvalue = 594.667"] ;
3 -> 17 ;
18 [label="Population_Driver_licence(%) <= 0.532\nmse = 708.222\nsamples = 3\nvalue = 544.333"] ;
17 -> 18 ;
19 [label="Population_Driver_licence(%) <= 0.516\nmse = 72.25\nsamples = 2\nvalue = 562.5"] ;
18 -> 19 ;
20 [label="mse = 0.0\nsamples = 1\nvalue = 554.0"] ;
19 -> 20 ;
21 [label="mse = 0.0\nsamples = 1\nvalue = 571.0"] ;
19 -> 21 ;
22 [label="mse = 0.0\nsamples = 1\nvalue = 508.0"] ;
18 -> 22 ;
23 [label="Average_income <= 4325.0\nmse = 754.472\nsamples = 6\nvalue = 619.833"] ;
17 -> 23 ;
24 [label="Average_income <= 4125.5\nmse = 209.84\nsamples = 5\nvalue = 630.6"] ;
23 -> 24 ;
25 [label="Petrol_tax <= 7.04\nmse = 29.556\nsamples = 3\nvalue = 638.333"] ;
24 -> 25 ;
26 [label="Paved_Highways <= 12808.0\nmse = 4.0\nsamples = 2\nvalue = 642.0"] ;
25 -> 26 ;
27 [label="mse = 0.0\nsamples = 1\nvalue = 644.0"] ;
26 -> 27 ;
28 [label="mse = 0.0\nsamples = 1\nvalue = 640.0"] ;
26 -> 28 ;
29 [label="mse = 0.0\nsamples = 1\nvalue = 631.0"] ;
25 -> 29 ;
30 [label="Average_income <= 4262.0\nmse = 256.0\nsamples = 2\nvalue = 619.0"] ;
24 -> 30 ;
31 [label="mse = 0.0\nsamples = 1\nvalue = 603.0"] ;
30 -> 31 ;
32 [label="mse = 0.0\nsamples = 1\nvalue = 635.0"] ;
30 -> 32 ;
33 [label="mse = 0.0\nsamples = 1\nvalue = 566.0"] ;
23 -> 33 ;
34 [label="Population_Driver_licence(%) <= 0.621\nmse = 1398.722\nsamples = 12\nvalue = 559.667"] ;
2 -> 34 ;
35 [label="Paved_Highways <= 4716.0\nmse = 752.05\nsamples = 11\nvalue = 551.636"] ;
34 -> 35 ;
36 [label="Average_income <= 3549.5\nmse = 539.889\nsamples = 6\nvalue = 532.333"] ;
35 -> 36 ;
37 [label="mse = 0.0\nsamples = 1\nvalue = 487.0"] ;
36 -> 37 ;
38 [label="Population_Driver_licence(%) <= 0.576\nmse = 154.64\nsamples = 5\nvalue = 541.4"] ;
36 -> 38 ;
39 [label="Population_Driver_licence(%) <= 0.549\nmse = 73.25\nsamples = 4\nvalue = 536.5"] ;
38 -> 39 ;
40 [label="Population_Driver_licence(%) <= 0.505\nmse = 28.222\nsamples = 3\nvalue = 540.667"] ;
39 -> 40 ;
41 [label="mse = 0.0\nsamples = 1\nvalue = 534.0"] ;
40 -> 41 ;
42 [label="Paved_Highways <= 3331.0\nmse = 9.0\nsamples = 2\nvalue = 544.0"] ;
40 -> 42 ;
43 [label="mse = 0.0\nsamples = 1\nvalue = 541.0"] ;
42 -> 43 ;
44 [label="mse = 0.0\nsamples = 1\nvalue = 547.0"] ;
42 -> 44 ;
45 [label="mse = 0.0\nsamples = 1\nvalue = 524.0"] ;
39 -> 45 ;
46 [label="mse = 0.0\nsamples = 1\nvalue = 561.0"] ;
38 -> 46 ;
47 [label="Paved_Highways <= 5072.5\nmse = 22.96\nsamples = 5\nvalue = 574.8"] ;
35 -> 47 ;
48 [label="mse = 0.0\nsamples = 1\nvalue = 566.0"] ;
47 -> 48 ;
49 [label="Population_Driver_licence(%) <= 0.539\nmse = 4.5\nsamples = 4\nvalue = 577.0"] ;
47 -> 49 ;
50 [label="mse = 0.0\nsamples = 1\nvalue = 580.0"] ;
49 -> 50 ;
51 [label="Average_income <= 3818.0\nmse = 2.0\nsamples = 3\nvalue = 576.0"] ;
49 -> 51 ;
52 [label="mse = 0.0\nsamples = 2\nvalue = 577.0"] ;
51 -> 52 ;
53 [label="mse = 0.0\nsamples = 1\nvalue = 574.0"] ;
51 -> 53 ;
54 [label="mse = 0.0\nsamples = 1\nvalue = 648.0"] ;
34 -> 54 ;
55 [label="Population_Driver_licence(%) <= 0.572\nmse = 5070.8\nsamples = 15\nvalue = 484.0"] ;
1 -> 55 ;
56 [label="Population_Driver_licence(%) <= 0.481\nmse = 1936.331\nsamples = 11\nvalue = 450.818"] ;
55 -> 56 ;
57 [label="mse = 0.0\nsamples = 1\nvalue = 344.0"] ;
56 -> 57 ;
58 [label="Paved_Highways <= 2400.0\nmse = 874.85\nsamples = 10\nvalue = 461.5"] ;
56 -> 58 ;
59 [label="Population_Driver_licence(%) <= 0.549\nmse = 639.5\nsamples = 4\nvalue = 437.0"] ;
58 -> 59 ;
60 [label="Paved_Highways <= 1391.0\nmse = 4.0\nsamples = 2\nvalue = 412.0"] ;
59 -> 60 ;
61 [label="mse = 0.0\nsamples = 1\nvalue = 410.0"] ;
60 -> 61 ;
62 [label="mse = 0.0\nsamples = 1\nvalue = 414.0"] ;
60 -> 62 ;
63 [label="Petrol_tax <= 9.0\nmse = 25.0\nsamples = 2\nvalue = 462.0"] ;
59 -> 63 ;
64 [label="mse = 0.0\nsamples = 1\nvalue = 467.0"] ;
63 -> 64 ;
65 [label="mse = 0.0\nsamples = 1\nvalue = 457.0"] ;
63 -> 65 ;
66 [label="Population_Driver_licence(%) <= 0.551\nmse = 364.806\nsamples = 6\nvalue = 477.833"] ;
58 -> 66 ;
67 [label="Paved_Highways <= 11381.5\nmse = 15.688\nsamples = 4\nvalue = 464.75"] ;
66 -> 67 ;
68 [label="Population_Driver_licence(%) <= 0.54\nmse = 3.556\nsamples = 3\nvalue = 462.667"] ;
67 -> 68 ;
69 [label="mse = 0.0\nsamples = 2\nvalue = 464.0"] ;
68 -> 69 ;
70 [label="mse = 0.0\nsamples = 1\nvalue = 460.0"] ;
68 -> 70 ;
71 [label="mse = 0.0\nsamples = 1\nvalue = 471.0"] ;
67 -> 71 ;
72 [label="Population_Driver_licence(%) <= 0.561\nmse = 36.0\nsamples = 2\nvalue = 504.0"] ;
66 -> 72 ;
73 [label="mse = 0.0\nsamples = 1\nvalue = 498.0"] ;
72 -> 73 ;
74 [label="mse = 0.0\nsamples = 1\nvalue = 510.0"] ;
72 -> 74 ;
75 [label="Population_Driver_licence(%) <= 0.614\nmse = 2336.188\nsamples = 4\nvalue = 575.25"] ;
55 -> 75 ;
76 [label="Average_income <= 4900.0\nmse = 56.25\nsamples = 2\nvalue = 532.5"] ;
75 -> 76 ;
77 [label="mse = 0.0\nsamples = 1\nvalue = 525.0"] ;
76 -> 77 ;
78 [label="mse = 0.0\nsamples = 1\nvalue = 540.0"] ;
76 -> 78 ;
79 [label="Paved_Highways <= 6236.5\nmse = 961.0\nsamples = 2\nvalue = 618.0"] ;
75 -> 79 ;
80 [label="mse = 0.0\nsamples = 1\nvalue = 587.0"] ;
79 -> 80 ;
81 [label="mse = 0.0\nsamples = 1\nvalue = 649.0"] ;
79 -> 81 ;
82 [label="Petrol_tax <= 7.75\nmse = 14404.188\nsamples = 4\nvalue = 813.75"] ;
0 -> 82 [labeldistance=2.5, labelangle=-45, headlabel="False"] ;
83 [label="Average_income <= 4530.5\nmse = 5788.222\nsamples = 3\nvalue = 871.667"] ;
82 -> 83 ;
84 [label="mse = 0.0\nsamples = 1\nvalue = 968.0"] ;
83 -> 84 ;
85 [label="Population_Driver_licence(%) <= 0.698\nmse = 1722.25\nsamples = 2\nvalue = 823.5"] ;
83 -> 85 ;
86 [label="mse = 0.0\nsamples = 1\nvalue = 782.0"] ;
85 -> 86 ;
87 [label="mse = 0.0\nsamples = 1\nvalue = 865.0"] ;
85 -> 87 ;
88 [label="mse = 0.0\nsamples = 1\nvalue = 640.0"] ;
82 -> 88 ;
}