digraph Tree {
node [shape=box] ;
0 [label="Gender <= 0.5\nmse = 0.25\nsamples = 30\nvalue = 0.5"] ;
1 [label="Height <= 4.8\nmse = 0.16\nsamples = 10\nvalue = 0.2"] ;
0 -> 1 [labeldistance=2.5, labelangle=45, headlabel="True"] ;
2 [label="Class <= 0.5\nmse = 0.222\nsamples = 3\nvalue = 0.667"] ;
1 -> 2 ;
3 [label="mse = 0.0\nsamples = 1\nvalue = 1.0"] ;
2 -> 3 ;
4 [label="Height <= 4.55\nmse = 0.25\nsamples = 2\nvalue = 0.5"] ;
2 -> 4 ;
5 [label="mse = 0.0\nsamples = 1\nvalue = 1.0"] ;
4 -> 5 ;
6 [label="mse = 0.0\nsamples = 1\nvalue = 0.0"] ;
4 -> 6 ;
7 [label="mse = 0.0\nsamples = 7\nvalue = 0.0"] ;
1 -> 7 ;
8 [label="Class <= 0.5\nmse = 0.227\nsamples = 20\nvalue = 0.65"] ;
0 -> 8 [labeldistance=2.5, labelangle=-45, headlabel="False"] ;
9 [label="Height <= 5.225\nmse = 0.243\nsamples = 12\nvalue = 0.417"] ;
8 -> 9 ;
10 [label="mse = 0.0\nsamples = 2\nvalue = 1.0"] ;
9 -> 10 ;
11 [label="Height <= 5.275\nmse = 0.21\nsamples = 10\nvalue = 0.3"] ;
9 -> 11 ;
12 [label="mse = 0.0\nsamples = 1\nvalue = 0.0"] ;
11 -> 12 ;
13 [label="Height <= 5.325\nmse = 0.222\nsamples = 9\nvalue = 0.333"] ;
11 -> 13 ;
14 [label="mse = 0.0\nsamples = 1\nvalue = 1.0"] ;
13 -> 14 ;
15 [label="Height <= 5.75\nmse = 0.188\nsamples = 8\nvalue = 0.25"] ;
13 -> 15 ;
16 [label="mse = 0.0\nsamples = 3\nvalue = 0.0"] ;
15 -> 16 ;
17 [label="Height <= 6.5\nmse = 0.24\nsamples = 5\nvalue = 0.4"] ;
15 -> 17 ;
18 [label="mse = 0.25\nsamples = 4\nvalue = 0.5"] ;
17 -> 18 ;
19 [label="mse = 0.0\nsamples = 1\nvalue = 0.0"] ;
17 -> 19 ;
20 [label="mse = 0.0\nsamples = 8\nvalue = 1.0"] ;
8 -> 20 ;
}